<?xml version="1.0"?>
<opencv_storage>
<cascade>
  <stageType>BOOST</stageType>
  <featureType>HAAR</featureType>
  <height>32</height>
  <width>64</width>
  <stageParams>
    <boostType>GAB</boostType>
    <minHitRate>9.9500000476837158e-01</minHitRate>
    <maxFalseAlarm>5.0000000000000000e-01</maxFalseAlarm>
    <weightTrimRate>9.4999998807907104e-01</weightTrimRate>
    <maxDepth>1</maxDepth>
    <maxWeakCount>100</maxWeakCount></stageParams>
  <featureParams>
    <maxCatCount>0</maxCatCount>
    <featSize>1</featSize>
    <mode>BASIC</mode></featureParams>
  <stageNum>10</stageNum>
  <stages>
    <!-- stage 0 -->
    <_>
      <maxWeakCount>3</maxWeakCount>
      <stageThreshold>-1.2914509773254395e+00</stageThreshold>
      <weakClassifiers>
        <_>
          <internalNodes>
            0 -1 29 -1.5098597854375839e-02</internalNodes>
          <leafValues>
            5.4285717010498047e-01 -9.6630328893661499e-01</leafValues></_>
        <_>
          <internalNodes>
            0 -1 14 1.0089606046676636e-01</internalNodes>
          <leafValues>
            -9.1678261756896973e-01 4.8638948798179626e-01</leafValues></_>
        <_>
          <internalNodes>
            0 -1 21 2.1818364039063454e-03</internalNodes>
          <leafValues>
            -8.1153720617294312e-01 6.0641270875930786e-01</leafValues></_></weakClassifiers></_>
    <!-- stage 1 -->
    <_>
      <maxWeakCount>4</maxWeakCount>
      <stageThreshold>-1.8915941715240479e+00</stageThreshold>
      <weakClassifiers>
        <_>
          <internalNodes>
            0 -1 7 6.2292881309986115e-02</internalNodes>
          <leafValues>
            -9.6218907833099365e-01 2.8205129504203796e-01</leafValues></_>
        <_>
          <internalNodes>
            0 -1 15 -6.2785269692540169e-03</internalNodes>
          <leafValues>
            7.1547263860702515e-01 -8.1982952356338501e-01</leafValues></_>
        <_>
          <internalNodes>
            0 -1 1 1.3323083519935608e-02</internalNodes>
          <leafValues>
            -7.9187005758285522e-01 5.2542394399642944e-01</leafValues></_>
        <_>
          <internalNodes>
            0 -1 8 4.7508399933576584e-02</internalNodes>
          <leafValues>
            -6.3499957323074341e-01 7.3058140277862549e-01</leafValues></_></weakClassifiers></_>
    <!-- stage 2 -->
    <_>
      <maxWeakCount>3</maxWeakCount>
      <stageThreshold>-1.4936008453369141e+00</stageThreshold>
      <weakClassifiers>
        <_>
          <internalNodes>
            0 -1 22 -5.6707162410020828e-02</internalNodes>
          <leafValues>
            -2.0454545319080353e-01 -9.8117154836654663e-01</leafValues></_>
        <_>
          <internalNodes>
            0 -1 23 -8.6833834648132324e-03</internalNodes>
          <leafValues>
            8.4706153720617294e-03 -8.9502298831939697e-01</leafValues></_>
        <_>
          <internalNodes>
            0 -1 6 -9.1305766254663467e-03</internalNodes>
          <leafValues>
            3.8259366154670715e-01 -7.9120045900344849e-01</leafValues></_></weakClassifiers></_>
    <!-- stage 3 -->
    <_>
      <maxWeakCount>3</maxWeakCount>
      <stageThreshold>-1.4774861335754395e+00</stageThreshold>
      <weakClassifiers>
        <_>
          <internalNodes>
            0 -1 24 -1.1855015531182289e-02</internalNodes>
          <leafValues>
            5.7142859697341919e-01 -9.3592232465744019e-01</leafValues></_>
        <_>
          <internalNodes>
            0 -1 26 -4.9196183681488037e-03</internalNodes>
          <leafValues>
            4.8573052883148193e-01 -8.1172233819961548e-01</leafValues></_>
        <_>
          <internalNodes>
            0 -1 3 -5.3671128116548061e-03</internalNodes>
          <leafValues>
            2.7015852928161621e-01 -8.9204674959182739e-01</leafValues></_></weakClassifiers></_>
    <!-- stage 4 -->
    <_>
      <maxWeakCount>3</maxWeakCount>
      <stageThreshold>-1.5613979101181030e+00</stageThreshold>
      <weakClassifiers>
        <_>
          <internalNodes>
            0 -1 25 -6.8341204896569252e-03</internalNodes>
          <leafValues>
            6.9230771064758301e-01 -9.3598449230194092e-01</leafValues></_>
        <_>
          <internalNodes>
            0 -1 19 2.6314435526728630e-03</internalNodes>
          <leafValues>
            -8.1990844011306763e-01 2.7280446887016296e-01</leafValues></_>
        <_>
          <internalNodes>
            0 -1 31 -2.0388311531860381e-04</internalNodes>
          <leafValues>
            2.3903436958789825e-01 -8.9821785688400269e-01</leafValues></_></weakClassifiers></_>
    <!-- stage 5 -->
    <_>
      <maxWeakCount>4</maxWeakCount>
      <stageThreshold>-2.2190895080566406e+00</stageThreshold>
      <weakClassifiers>
        <_>
          <internalNodes>
            0 -1 20 3.9729874581098557e-02</internalNodes>
          <leafValues>
            -9.3592232465744019e-01 5.7142859697341919e-01</leafValues></_>
        <_>
          <internalNodes>
            0 -1 17 -8.2791239023208618e-02</internalNodes>
          <leafValues>
            -8.9026100933551788e-02 -9.1940450668334961e-01</leafValues></_>
        <_>
          <internalNodes>
            0 -1 5 -9.9098472855985165e-04</internalNodes>
          <leafValues>
            2.5921031832695007e-01 -8.4342950582504272e-01</leafValues></_>
        <_>
          <internalNodes>
            0 -1 16 -2.2303555160760880e-03</internalNodes>
          <leafValues>
            5.0690323114395142e-01 -6.2297290563583374e-01</leafValues></_></weakClassifiers></_>
    <!-- stage 6 -->
    <_>
      <maxWeakCount>4</maxWeakCount>
      <stageThreshold>-2.2082793712615967e+00</stageThreshold>
      <weakClassifiers>
        <_>
          <internalNodes>
            0 -1 30 -5.9915343299508095e-03</internalNodes>
          <leafValues>
            8.0000001192092896e-01 -9.3230175971984863e-01</leafValues></_>
        <_>
          <internalNodes>
            0 -1 17 -8.2784235477447510e-02</internalNodes>
          <leafValues>
            2.2450149059295654e-02 -9.3517392873764038e-01</leafValues></_>
        <_>
          <internalNodes>
            0 -1 9 -2.9672091826796532e-02</internalNodes>
          <leafValues>
            3.3088144659996033e-01 -7.0312416553497314e-01</leafValues></_>
        <_>
          <internalNodes>
            0 -1 28 1.4149749185889959e-03</internalNodes>
          <leafValues>
            -6.7168515920639038e-01 4.6653047204017639e-01</leafValues></_></weakClassifiers></_>
    <!-- stage 7 -->
    <_>
      <maxWeakCount>3</maxWeakCount>
      <stageThreshold>-1.8298823833465576e+00</stageThreshold>
      <weakClassifiers>
        <_>
          <internalNodes>
            0 -1 0 -9.4264268875122070e-02</internalNodes>
          <leafValues>
            -2.2638141692369578e-17 -9.4280076026916504e-01</leafValues></_>
        <_>
          <internalNodes>
            0 -1 18 -6.0647252947092056e-02</internalNodes>
          <leafValues>
            2.0780335366725922e-01 -8.6905092000961304e-01</leafValues></_>
        <_>
          <internalNodes>
            0 -1 33 1.3513993471860886e-03</internalNodes>
          <leafValues>
            -9.6083146333694458e-01 1.4296500384807587e-01</leafValues></_></weakClassifiers></_>
    <!-- stage 8 -->
    <_>
      <maxWeakCount>4</maxWeakCount>
      <stageThreshold>-2.0980968475341797e+00</stageThreshold>
      <weakClassifiers>
        <_>
          <internalNodes>
            0 -1 11 -2.6275614276528358e-02</internalNodes>
          <leafValues>
            4.6666666865348816e-01 -9.3586003780364990e-01</leafValues></_>
        <_>
          <internalNodes>
            0 -1 10 -2.5010738521814346e-02</internalNodes>
          <leafValues>
            2.5537288188934326e-01 -8.0839598178863525e-01</leafValues></_>
        <_>
          <internalNodes>
            0 -1 2 3.3064249902963638e-02</internalNodes>
          <leafValues>
            -8.0709403753280640e-01 3.3840879797935486e-01</leafValues></_>
        <_>
          <internalNodes>
            0 -1 27 -4.2546025360934436e-04</internalNodes>
          <leafValues>
            4.9361431598663330e-01 -6.9224971532821655e-01</leafValues></_></weakClassifiers></_>
    <!-- stage 9 -->
    <_>
      <maxWeakCount>4</maxWeakCount>
      <stageThreshold>-2.0452373027801514e+00</stageThreshold>
      <weakClassifiers>
        <_>
          <internalNodes>
            0 -1 13 1.4567133784294128e-01</internalNodes>
          <leafValues>
            -9.3050193786621094e-01 1.</leafValues></_>
        <_>
          <internalNodes>
            0 -1 12 -5.3822226822376251e-02</internalNodes>
          <leafValues>
            2.1633610129356384e-01 -8.0890077352523804e-01</leafValues></_>
        <_>
          <internalNodes>
            0 -1 4 -3.0551817268133163e-02</internalNodes>
          <leafValues>
            5.0398856401443481e-01 -6.4090955257415771e-01</leafValues></_>
        <_>
          <internalNodes>
            0 -1 32 6.2304013408720493e-04</internalNodes>
          <leafValues>
            3.3507484197616577e-01 -9.6926963329315186e-01</leafValues></_></weakClassifiers></_></stages>
  <features>
    <_>
      <rects>
        <_>
          0 2 28 16 -1.</_>
        <_>
          0 2 14 8 2.</_>
        <_>
          14 10 14 8 2.</_></rects>
      <tilted>0</tilted></_>
    <_>
      <rects>
        <_>
          0 6 10 12 -1.</_>
        <_>
          0 12 10 6 2.</_></rects>
      <tilted>0</tilted></_>
    <_>
      <rects>
        <_>
          1 1 32 7 -1.</_>
        <_>
          17 1 16 7 2.</_></rects>
      <tilted>0</tilted></_>
    <_>
      <rects>
        <_>
          3 17 26 10 -1.</_>
        <_>
          3 17 13 5 2.</_>
        <_>
          16 22 13 5 2.</_></rects>
      <tilted>0</tilted></_>
    <_>
      <rects>
        <_>
          4 10 16 17 -1.</_>
        <_>
          12 10 8 17 2.</_></rects>
      <tilted>0</tilted></_>
    <_>
      <rects>
        <_>
          6 0 6 4 -1.</_>
        <_>
          9 0 3 4 2.</_></rects>
      <tilted>0</tilted></_>
    <_>
      <rects>
        <_>
          12 12 41 4 -1.</_>
        <_>
          12 14 41 2 2.</_></rects>
      <tilted>0</tilted></_>
    <_>
      <rects>
        <_>
          13 24 33 8 -1.</_>
        <_>
          13 28 33 4 2.</_></rects>
      <tilted>0</tilted></_>
    <_>
      <rects>
        <_>
          13 24 51 8 -1.</_>
        <_>
          13 28 51 4 2.</_></rects>
      <tilted>0</tilted></_>
    <_>
      <rects>
        <_>
          14 10 10 16 -1.</_>
        <_>
          14 18 10 8 2.</_></rects>
      <tilted>0</tilted></_>
    <_>
      <rects>
        <_>
          18 6 25 9 -1.</_>
        <_>
          18 9 25 3 3.</_></rects>
      <tilted>0</tilted></_>
    <_>
      <rects>
        <_>
          19 10 31 6 -1.</_>
        <_>
          19 12 31 2 3.</_></rects>
      <tilted>0</tilted></_>
    <_>
      <rects>
        <_>
          21 20 22 12 -1.</_>
        <_>
          21 24 22 4 3.</_></rects>
      <tilted>0</tilted></_>
    <_>
      <rects>
        <_>
          22 13 28 13 -1.</_>
        <_>
          36 13 14 13 2.</_></rects>
      <tilted>0</tilted></_>
    <_>
      <rects>
        <_>
          26 2 30 28 -1.</_>
        <_>
          26 2 15 14 2.</_>
        <_>
          41 16 15 14 2.</_></rects>
      <tilted>0</tilted></_>
    <_>
      <rects>
        <_>
          29 1 18 2 -1.</_>
        <_>
          29 1 9 1 2.</_>
        <_>
          38 2 9 1 2.</_></rects>
      <tilted>0</tilted></_>
    <_>
      <rects>
        <_>
          30 0 10 3 -1.</_>
        <_>
          30 1 10 1 3.</_></rects>
      <tilted>0</tilted></_>
    <_>
      <rects>
        <_>
          34 1 30 17 -1.</_>
        <_>
          49 1 15 17 2.</_></rects>
      <tilted>0</tilted></_>
    <_>
      <rects>
        <_>
          34 9 30 9 -1.</_>
        <_>
          49 9 15 9 2.</_></rects>
      <tilted>0</tilted></_>
    <_>
      <rects>
        <_>
          37 30 9 2 -1.</_>
        <_>
          37 31 9 1 2.</_></rects>
      <tilted>0</tilted></_>
    <_>
      <rects>
        <_>
          38 8 12 10 -1.</_>
        <_>
          38 13 12 5 2.</_></rects>
      <tilted>0</tilted></_>
    <_>
      <rects>
        <_>
          39 2 6 3 -1.</_>
        <_>
          39 3 6 1 3.</_></rects>
      <tilted>0</tilted></_>
    <_>
      <rects>
        <_>
          46 0 14 23 -1.</_>
        <_>
          53 0 7 23 2.</_></rects>
      <tilted>0</tilted></_>
    <_>
      <rects>
        <_>
          47 3 14 3 -1.</_>
        <_>
          54 3 7 3 2.</_></rects>
      <tilted>0</tilted></_>
    <_>
      <rects>
        <_>
          47 16 4 6 -1.</_>
        <_>
          47 18 4 2 3.</_></rects>
      <tilted>0</tilted></_>
    <_>
      <rects>
        <_>
          48 16 3 4 -1.</_>
        <_>
          48 18 3 2 2.</_></rects>
      <tilted>0</tilted></_>
    <_>
      <rects>
        <_>
          48 19 3 6 -1.</_>
        <_>
          48 21 3 2 3.</_></rects>
      <tilted>0</tilted></_>
    <_>
      <rects>
        <_>
          49 17 2 3 -1.</_>
        <_>
          49 18 2 1 3.</_></rects>
      <tilted>0</tilted></_>
    <_>
      <rects>
        <_>
          50 0 3 25 -1.</_>
        <_>
          51 0 1 25 3.</_></rects>
      <tilted>0</tilted></_>
    <_>
      <rects>
        <_>
          50 0 4 21 -1.</_>
        <_>
          52 0 2 21 2.</_></rects>
      <tilted>0</tilted></_>
    <_>
      <rects>
        <_>
          50 12 3 9 -1.</_>
        <_>
          51 12 1 9 3.</_></rects>
      <tilted>0</tilted></_>
    <_>
      <rects>
        <_>
          53 0 5 2 -1.</_>
        <_>
          53 1 5 1 2.</_></rects>
      <tilted>0</tilted></_>
    <_>
      <rects>
        <_>
          58 8 6 7 -1.</_>
        <_>
          61 8 3 7 2.</_></rects>
      <tilted>0</tilted></_>
    <_>
      <rects>
        <_>
          58 10 1 22 -1.</_>
        <_>
          58 21 1 11 2.</_></rects>
      <tilted>0</tilted></_></features></cascade>
</opencv_storage>
